#ifndef __THYROID_TRAINED__
#define __THYROID_TRAINED__


// FANN_FLO_2.1

#define NUM_LAYERS                           3
#define LEARNING_RATE                        0.700000
#define CONNECTION_RATE                      1.000000
#define NETWORK_TYPE                         0
#define LEARNING_MOMENTUM                    0.400000
#define TRAINING_ALGORITHM                   0
#define TRAIN_ERROR_FUNCTION                 1
#define TRAIN_STOP_FUNCTION                  0
#define CASCADE_OUTPUT_CHANGE_FRACTION       0.010000
#define QUICKPROP_DECAY                      -0.000100
#define QUICKPROP_MU                         1.750000
#define RPROP_INCREASE_FACTOR                1.200000
#define RPROP_DECREASE_FACTOR                0.500000
#define RPROP_DELTA_MIN                      0.000000
#define RPROP_DELTA_MAX                      50.000000
#define RPROP_DELTA_ZERO                     0.100000
#define CASCADE_OUTPUT_STAGNATION_EPOCHS     12
#define CASCADE_CANDIDATE_CHANGE_FRACTION    0.010000
#define CASCADE_CANDIDATE_STAGNATION_EPOCHS  12
#define CASCADE_MAX_OUT_EPOCHS               150
#define CASCADE_MIN_OUT_EPOCHS               50
#define CASCADE_MAX_CAND_EPOCHS              150
#define CASCADE_MIN_CAND_EPOCHS              50
#define CASCADE_NUM_CANDIDATE_GROUPS         2
#define BIT_FAIL_LIMIT                       3.49999994039535522461E-01
#define CASCADE_CANDIDATE_LIMIT              1.00000000000000000000E+03
#define CASCADE_WEIGHT_MULTIPLIER            4.00000005960464477539E-01
#define CASCADE_ACTIVATION_FUNCTIONS_COUNT   10
#define CASCADE_ACTIVATION_FUNCTION_1        3
#define CASCADE_ACTIVATION_FUNCTION_2        5
#define CASCADE_ACTIVATION_FUNCTION_3        7
#define CASCADE_ACTIVATION_FUNCTION_4        8
#define CASCADE_ACTIVATION_FUNCTION_5        10
#define CASCADE_ACTIVATION_FUNCTION_6        11
#define CASCADE_ACTIVATION_FUNCTION_7        14
#define CASCADE_ACTIVATION_FUNCTION_8        15
#define CASCADE_ACTIVATION_FUNCTION_9        16
#define CASCADE_ACTIVATION_FUNCTION_10       17
#define CASCADE_ACTIVATION_STEEPNESSES_COUNT 4
#define CASCADE_ACTIVATION_STEEPNESS_1       2.50000000000000000000e-01
#define CASCADE_ACTIVATION_STEEPNESS_2       5.00000000000000000000e-01
#define CASCADE_ACTIVATION_STEEPNESS_3       7.50000000000000000000e-01
#define CASCADE_ACTIVATION_STEEPNESS_4       1.00000000000000000000e+00
#define LAYER_SIZE_1                         22
#define LAYER_SIZE_2                         6
#define LAYER_SIZE_3                         4
#define SCALE_INCLUDED                       0

fann_type neurons[][3] = {
    {0, 0, 0.00000000000000000000e+00},
    {0, 0, 0.00000000000000000000e+00},
    {0, 0, 0.00000000000000000000e+00},
    {0, 0, 0.00000000000000000000e+00},
    {0, 0, 0.00000000000000000000e+00},
    {0, 0, 0.00000000000000000000e+00},
    {0, 0, 0.00000000000000000000e+00},
    {0, 0, 0.00000000000000000000e+00},
    {0, 0, 0.00000000000000000000e+00},
    {0, 0, 0.00000000000000000000e+00},
    {0, 0, 0.00000000000000000000e+00},
    {0, 0, 0.00000000000000000000e+00},
    {0, 0, 0.00000000000000000000e+00},
    {0, 0, 0.00000000000000000000e+00},
    {0, 0, 0.00000000000000000000e+00},
    {0, 0, 0.00000000000000000000e+00},
    {0, 0, 0.00000000000000000000e+00},
    {0, 0, 0.00000000000000000000e+00},
    {0, 0, 0.00000000000000000000e+00},
    {0, 0, 0.00000000000000000000e+00},
    {0, 0, 0.00000000000000000000e+00},
    {0, 0, 0.00000000000000000000e+00},
    {22, 4, 5.00000000000000000000e-01},
    {22, 4, 5.00000000000000000000e-01},
    {22, 4, 5.00000000000000000000e-01},
    {22, 4, 5.00000000000000000000e-01},
    {22, 4, 5.00000000000000000000e-01},
    {0, 0, 0.00000000000000000000e+00},
    {6, 4, 5.00000000000000000000e-01},
    {6, 4, 5.00000000000000000000e-01},
    {6, 4, 5.00000000000000000000e-01},
    {0, 0, 0.00000000000000000000e+00} 
};

fann_type connections[][2] = {
    {0, 3.61409354209899902344e+00},
    {1, -1.49772143363952636719e+00},
    {2, -3.82774543762207031250e+00},
    {3, 8.48103225231170654297e-01},
    {4, 9.98874092102050781250e+00},
    {5, -3.06766450405120849609e-01},
    {6, 2.80185294151306152344e+00},
    {7, -6.40221881866455078125e+00},
    {8, -5.65426528453826904297e-01},
    {9, 1.38478624820709228516e+00},
    {10, -1.44909310620278120041e-03},
    {11, 1.65873122215270996094e+00},
    {12, 2.72407937049865722656e+00},
    {13, 3.49221318960189819336e-01},
    {14, 5.17618834972381591797e-01},
    {15, 1.35989427566528320312e+00},
    {16, -5.22630493164062500000e+02},
    {17, 4.80051307678222656250e+01},
    {18, 1.46887798309326171875e+01},
    {19, 7.60302162170410156250e+00},
    {20, 4.96109294891357421875e+00},
    {21, -2.85603666305541992188e+00},
    {0, -4.27974700927734375000e+00},
    {1, -1.46029639244079589844e+00},
    {2, 8.50306129455566406250e+00},
    {3, -1.56211745738983154297e+00},
    {4, -2.32386875152587890625e+00},
    {5, -2.13245463371276855469e+00},
    {6, 1.55352830886840820312e+00},
    {7, 1.17360248565673828125e+01},
    {8, -8.15272998809814453125e+00},
    {9, -1.66686022281646728516e+00},
    {10, 4.34671545028686523438e+00},
    {11, -1.12356090545654296875e+01},
    {12, 1.84220838546752929688e+00},
    {13, -1.96854472160339355469e+00},
    {14, 3.91663104295730590820e-01},
    {15, -7.37805306911468505859e-01},
    {16, -4.14119628906250000000e+02},
    {17, 2.94558906555175781250e+01},
    {18, 1.56373214721679687500e+01},
    {19, 2.76906719207763671875e+01},
    {20, 5.82550716400146484375e+00},
    {21, -7.19731092453002929688e-01},
    {0, 1.04429998397827148438e+01},
    {1, 1.67833423614501953125e+01},
    {2, 3.47027893066406250000e+01},
    {3, 6.07309436798095703125e+00},
    {4, -7.06175136566162109375e+00},
    {5, 5.00060081481933593750e+00},
    {6, 1.26861763000488281250e+00},
    {7, -1.45812692642211914062e+01},
    {8, 4.64500188827514648438e+00},
    {9, -7.68644762039184570312e+00},
    {10, -1.07302179336547851562e+01},
    {11, 1.05791072845458984375e+01},
    {12, 1.97281706333160400391e+00},
    {13, 9.03471565246582031250e+00},
    {14, 3.44689726829528808594e-01},
    {15, 1.42191991806030273438e+01},
    {16, -1.19524909973144531250e+02},
    {17, 9.68017292022705078125e+00},
    {18, -1.40786790847778320312e+01},
    {19, -7.31124067306518554688e+00},
    {20, -4.65103715658187866211e-01},
    {21, -1.17770929336547851562e+01},
    {0, 1.38622844219207763672e+00},
    {1, 1.56759512424468994141e+00},
    {2, 5.40722312927246093750e+01},
    {3, -9.30081069469451904297e-01},
    {4, -4.67125701904296875000e+00},
    {5, 3.82977676391601562500e+00},
    {6, 2.55085945129394531250e+00},
    {7, 6.82618255615234375000e+01},
    {8, 2.42392635345458984375e+01},
    {9, -4.83400896191596984863e-02},
    {10, -1.47067689895629882812e+01},
    {11, 8.83008384704589843750e+00},
    {12, 2.13505434989929199219e+00},
    {13, 1.34180411696434020996e-01},
    {14, 1.36324673891067504883e-01},
    {15, 1.23767459392547607422e+00},
    {16, -4.37868530273437500000e+02},
    {17, 3.61440391540527343750e+01},
    {18, -4.33403816223144531250e+01},
    {19, -3.35754699707031250000e+01},
    {20, 1.74231929779052734375e+01},
    {21, 6.05733013153076171875e+00},
    {0, -6.00511491298675537109e-01},
    {1, 3.66392672061920166016e-01},
    {2, -2.70549154281616210938e+00},
    {3, 2.15513205528259277344e+00},
    {4, 6.41589450836181640625e+00},
    {5, -9.71203327178955078125e-01},
    {6, 1.88016682863235473633e-01},
    {7, -3.51359081268310546875e+00},
    {8, -2.49263381958007812500e+00},
    {9, 2.15878582000732421875e+00},
    {10, 8.67877066135406494141e-01},
    {11, 1.57281389236450195312e+01},
    {12, 1.90803563594818115234e+00},
    {13, -1.81103181838989257812e+00},
    {14, -1.15491479635238647461e-01},
    {15, 3.39406356811523437500e+01},
    {16, -7.81842231750488281250e+00},
    {17, 6.99598617553710937500e+01},
    {18, 1.40428665161132812500e+02},
    {19, -3.43242988586425781250e+01},
    {20, 1.68089950561523437500e+02},
    {21, -1.69783763885498046875e+01},
    {22, -6.78914833068847656250e+00},
    {23, -5.97460794448852539062e+00},
    {24, 1.13354355096817016602e-01},
    {25, -2.89019036293029785156e+00},
    {26, -8.00397872924804687500e+00},
    {27, 4.06027030944824218750e+00},
    {22, -6.08676576614379882812e+00},
    {23, -5.86640453338623046875e+00},
    {24, -2.25412011146545410156e+00},
    {25, -5.83556795120239257812e+00},
    {26, 1.25199861526489257812e+01},
    {27, -4.62397384643554687500e+00},
    {22, 6.55917072296142578125e+00},
    {23, 5.94057941436767578125e+00},
    {24, 2.14715385437011718750e+00},
    {25, 6.11479473114013671875e+00},
    {26, -6.25186681747436523438e-01},
    {27, -6.91229867935180664062e+00} 
};


#endif // __THYROID_TRAINED__
